digraph Tree {
node [shape=box, style="rounded", color="black", fontname=helvetica] ;
edge [fontname=helvetica] ;
0 [label="BLACK <= 4.6\nmse = 85.0\nsamples = 7\nvalue = [[14.0]\n[5.0]\n[59.9]\n[0.6]\n[4.0]\n[9.0]\n[1.0]\n[5.5]\n[0.0]\n[0.0]\n[0.1]\n[0.1]\n[0.0]\n[0.1]\n[0.2]\n[0.2]\n[0.0]\n[0.1]\n[0.2]\n[0.0]\n[0.3]\n[0.7]]"] ;
1 [label="RED <= 6.5\nmse = 1.2\nsamples = 4\nvalue = [[7.3]\n[2.7]\n[85.2]\n[0.6]\n[2.1]\n[0.9]\n[0.2]\n[2.4]\n[0.0]\n[0.0]\n[0.0]\n[0.0]\n[0.0]\n[0.0]\n[0.3]\n[0.3]\n[0.0]\n[0.1]\n[0.3]\n[0.0]\n[0.0]\n[1.0]]"] ;
0 -> 1 [labeldistance=2.5, labelangle=45, headlabel="True"] ;
2 [label="RED <= 3.9\nmse = 0.1\nsamples = 2\nvalue = [[3.5]\n[1.9]\n[89.1]\n[0.7]\n[2.6]\n[0.3]\n[0.2]\n[2.1]\n[0.0]\n[0.0]\n[0.0]\n[0.0]\n[0.0]\n[0.0]\n[0.7]\n[0.0]\n[0.0]\n[0.3]\n[0.0]\n[0.0]\n[0.0]\n[1.0]]"] ;
1 -> 2 ;
3 [label="mse = 0.0\nsamples = 1\nvalue = [[2.9]\n[1.9]\n[89.1]\n[0.7]\n[2.6]\n[0.3]\n[0.2]\n[2.1]\n[0.0]\n[0.0]\n[0.0]\n[0.0]\n[0.0]\n[0.0]\n[1.0]\n[0.0]\n[0.0]\n[0.0]\n[0.0]\n[0.0]\n[0.0]\n[1.0]]"] ;
2 -> 3 ;
4 [label="mse = -0.0\nsamples = 1\nvalue = [[4.9]\n[1.9]\n[89.1]\n[0.7]\n[2.6]\n[0.3]\n[0.2]\n[2.1]\n[0.0]\n[0.0]\n[0.0]\n[0.0]\n[0.0]\n[0.0]\n[0.0]\n[0.0]\n[0.0]\n[1.0]\n[0.0]\n[0.0]\n[0.0]\n[1.0]]"] ;
2 -> 4 ;
5 [label="NAME_Ocean 5 <= 0.5\nmse = 0.2\nsamples = 2\nvalue = [[10.0]\n[3.2]\n[82.2]\n[0.5]\n[1.8]\n[1.3]\n[0.1]\n[2.6]\n[0.0]\n[0.0]\n[0.0]\n[0.0]\n[0.0]\n[0.0]\n[0.0]\n[0.5]\n[0.0]\n[0.0]\n[0.5]\n[0.0]\n[0.0]\n[1.0]]"] ;
1 -> 5 ;
6 [label="mse = 0.0\nsamples = 1\nvalue = [[8.0]\n[3.2]\n[82.2]\n[0.5]\n[1.8]\n[1.3]\n[0.1]\n[2.6]\n[0.0]\n[0.0]\n[0.0]\n[0.0]\n[0.0]\n[0.0]\n[0.0]\n[1.0]\n[0.0]\n[0.0]\n[0.0]\n[0.0]\n[0.0]\n[1.0]]"] ;
5 -> 6 ;
7 [label="mse = 0.0\nsamples = 1\nvalue = [[12.0]\n[3.2]\n[82.2]\n[0.5]\n[1.8]\n[1.3]\n[0.1]\n[2.6]\n[0.0]\n[0.0]\n[0.0]\n[0.0]\n[0.0]\n[0.0]\n[0.0]\n[0.0]\n[0.0]\n[0.0]\n[1.0]\n[0.0]\n[0.0]\n[1.0]]"] ;
5 -> 7 ;
8 [label="BLACK <= 11.1\nmse = 8.6\nsamples = 3\nvalue = [[29.6]\n[10.3]\n[0.9]\n[0.5]\n[8.5]\n[27.9]\n[3.1]\n[12.6]\n[0.0]\n[0.0]\n[0.3]\n[0.3]\n[0.0]\n[0.3]\n[0.0]\n[0.0]\n[0.0]\n[0.0]\n[0.0]\n[0.0]\n[1.0]\n[0.0]]"] ;
0 -> 8 [labeldistance=2.5, labelangle=-45, headlabel="False"] ;
9 [label="mse = -0.0\nsamples = 1\nvalue = [[21.3]\n[22.7]\n[0.3]\n[0.1]\n[12.9]\n[19.9]\n[6.0]\n[6.6]\n[0.0]\n[0.0]\n[0.0]\n[1.0]\n[0.0]\n[0.0]\n[0.0]\n[0.0]\n[0.0]\n[0.0]\n[0.0]\n[0.0]\n[1.0]\n[0.0]]"] ;
8 -> 9 ;
10 [label="NAME_Jungle 3 <= 0.5\nmse = 0.9\nsamples = 2\nvalue = [[33.8]\n[4.1]\n[1.3]\n[0.7]\n[6.3]\n[31.8]\n[1.6]\n[15.7]\n[0.0]\n[0.0]\n[0.5]\n[0.0]\n[0.0]\n[0.5]\n[0.0]\n[0.0]\n[0.0]\n[0.0]\n[0.0]\n[0.0]\n[1.0]\n[0.0]]"] ;
8 -> 10 ;
11 [label="mse = -0.0\nsamples = 1\nvalue = [[29.3]\n[4.1]\n[1.3]\n[0.7]\n[6.3]\n[31.8]\n[1.6]\n[15.7]\n[0.0]\n[0.0]\n[0.0]\n[0.0]\n[0.0]\n[1.0]\n[0.0]\n[0.0]\n[0.0]\n[0.0]\n[0.0]\n[0.0]\n[1.0]\n[0.0]]"] ;
10 -> 11 ;
12 [label="mse = 0.0\nsamples = 1\nvalue = [[38.3]\n[4.1]\n[1.3]\n[0.7]\n[6.3]\n[31.8]\n[1.6]\n[15.7]\n[0.0]\n[0.0]\n[1.0]\n[0.0]\n[0.0]\n[0.0]\n[0.0]\n[0.0]\n[0.0]\n[0.0]\n[0.0]\n[0.0]\n[1.0]\n[0.0]]"] ;
10 -> 12 ;
}